{
  "iLayerSize": 5,
  "hLayerSize": 5,
  "oLayerSize": 4,
  "iInputValues": [
    193.22694298686747, 64.4156633774645, 59.61595852437589, 199.99999999999997,
    66.83895487072056
  ],
  "hPerc": [
    {
      "inputs": [
        193.22694298686747, 64.4156633774645, 59.61595852437589,
        199.99999999999997, 66.83895487072056
      ],
      "weights": [
        -0.793195491684759, 0.31957333501209906, -0.4677654579962982,
        0.6298008793839505, -0.28775637189047076
      ],
      "bias": -0.2576068310311288,
      "size": 5
    },
    {
      "inputs": [
        193.22694298686747, 64.4156633774645, 59.61595852437589,
        199.99999999999997, 66.83895487072056
      ],
      "weights": [
        -0.9997500450066883, -0.8338378783805198, -0.5281283418781757,
        -0.1664666244519899, -0.43530947484640503
      ],
      "bias": 0.7552413192187686,
      "size": 5
    },
    {
      "inputs": [
        193.22694298686747, 64.4156633774645, 59.61595852437589,
        199.99999999999997, 66.83895487072056
      ],
      "weights": [
        -0.24078036960799754, 0.20043141647267682, 0.2923480270656569,
        -0.7317885555692416, 0.485469876871202
      ],
      "bias": -0.2996098366278055,
      "size": 5
    },
    {
      "inputs": [
        193.22694298686747, 64.4156633774645, 59.61595852437589,
        199.99999999999997, 66.83895487072056
      ],
      "weights": [
        0.22361631508019064, -0.3261423001403507, -0.9912038617164916,
        0.07319268368705734, 0.05060333310126364
      ],
      "bias": 0.1083643900432123,
      "size": 5
    },
    {
      "inputs": [
        193.22694298686747, 64.4156633774645, 59.61595852437589,
        199.99999999999997, 66.83895487072056
      ],
      "weights": [
        -0.07255962463165178, -0.136377733043076, 0.32374724364850316,
        -0.49886051223126104, 0.5714404108372757
      ],
      "bias": -0.596982122371291,
      "size": 5
    }
  ],
  "hOutputValues": [-1, -1, -1, -1, -1],
  "oPerc": [
    {
      "inputs": [-1, -1, -1, -1, -1],
      "weights": [
        -0.5279180675629043, 0.7511488356839169, 0.7893467859663921,
        -0.2904228743309294, 0.5714933622085452
      ],
      "bias": 0.01728396300438284,
      "size": 5
    },
    {
      "inputs": [-1, -1, -1, -1, -1],
      "weights": [
        0.6460396622168711, -0.5035443462418905, -0.016205646439424015,
        0.0029628690303522554, -0.4096410674599116
      ],
      "bias": -0.2517855359283314,
      "size": 5
    },
    {
      "inputs": [-1, -1, -1, -1, -1],
      "weights": [
        -0.09050712787932547, -0.7438897735494931, -0.5640228079870488,
        -0.8292116535583203, -0.8959664855566793
      ],
      "bias": 0.8533050249191878,
      "size": 5
    },
    {
      "inputs": [-1, -1, -1, -1, -1],
      "weights": [
        0.265735170652627, 0.7484750777891018, 0.1625015706985664,
        -0.21491511356969273, 0.6256328007221241
      ],
      "bias": -0.8830838204242397,
      "size": 5
    }
  ],
  "oOutputValues": [-1, 1, 1, -1]
}
